svm_type c_svc
kernel_type linear
nr_class 2
total_sv 50
rho 1.92823
label 0 1
nr_sv 25 25
SV
1 1:0.3 2:0 3:1 4:1 
1 1:0 2:1 3:0 4:0 
1 1:0 2:1 3:0 4:0 
1 1:0.7 2:1 3:1 4:1 
1 1:0.1 2:1 3:0 4:0 
1 1:0.7 2:1 3:1 4:0 
1 1:0.7 2:1 3:1 4:0 
1 1:0.5 2:1 3:1 4:1 
1 1:0.4 2:1 3:0 4:0 
1 1:0.5 2:1 3:1 4:1 
1 1:0 2:1 3:0 4:0 
1 1:0.3 2:1 3:0 4:0 
1 1:0.7 2:1 3:1 4:1 
1 1:0.6 2:1 3:1 4:1 
1 1:0.1 2:1 3:1 4:0 
1 1:0 2:1 3:0 4:0 
1 1:0.5 2:1 3:1 4:1 
1 1:0.2 2:1 3:0 4:0 
1 1:0.5 2:1 3:1 4:1 
1 1:0 2:0 3:1 4:1 
1 1:0.3 2:0 3:0 4:0 
1 1:0.6 2:1 3:1 4:1 
1 1:0.5 2:1 3:1 4:0 
1 1:0.4 2:1 3:0 4:0 
0.7703346915504005 1:0.4 2:1 3:1 4:1 
-1 1:0.4 2:1 3:0 4:0 
-1 1:0.4 2:1 3:0 4:0 
-1 1:0.2 2:1 3:1 4:0 
-1 1:0.4 2:1 3:0 4:0 
-1 1:0.4 2:1 3:1 4:0 
-1 1:0.2 2:0 3:1 4:1 
-1 1:0.5 2:1 3:1 4:0 
-1 1:0.6 2:1 3:0 4:0 
-1 1:0.3 2:0 3:1 4:1 
-1 1:0.5 2:1 3:1 4:0 
-1 1:0.1 2:1 3:1 4:1 
-1 1:0.6 2:1 3:1 4:1 
-1 1:0.2 2:0 3:1 4:1 
-1 1:0.5 2:1 3:0 4:0 
-1 1:0.3 2:1 3:1 4:0 
-1 1:0.5 2:1 3:1 4:0 
-0.7703346915504005 1:0.7 2:1 3:0 4:0 
-1 1:0.4 2:1 3:0 4:0 
-1 1:0.7 2:1 3:1 4:1 
-1 1:0.1 2:1 3:1 4:0 
-1 1:0.9 2:1 3:0 4:1 
-1 1:0.2 2:0 3:1 4:1 
-1 1:0.6 2:1 3:0 4:0 
-1 1:0.3 2:0 3:1 4:1 
-1 1:0.6 2:1 3:0 4:0 
